{
  "input_nodes": 5,
  "hidden_nodes": 8,
  "output_nodes": 2,
  "weights_ih": {
    "rows": 8,
    "cols": 5,
    "data": [
      [
        -0.8651704477707294,
        -3.6539518505509525,
        0.42826781753525894,
        0.2346151882238491,
        -0.187469838773209
      ],
      [
        0.8507772887226662,
        -2.009894159888049,
        -1.8958764473819647,
        1.2614709583898591,
        0.8808101099989544
      ],
      [
        3.2380530861514565,
        -0.9229374356520572,
        0.3207715845337824,
        -1.715350743841516,
        -3.020251520136002
      ],
      [
        -0.6180636818659884,
        -1.6917592234408392,
        0.2119728996151423,
        1.2993225455363515,
        6.048705911667278
      ],
      [
        3.08551283123278,
        -2.243918315902455,
        2.3506676899706322,
        3.220667420901653,
        1.846413703946904
      ],
      [
        -2.5103220544971188,
        -3.3929684545987575,
        1.5553880324575502,
        1.6422698644385485,
        -1.9263238023418014
      ],
      [
        -4.18624778159319,
        1.2863367213512036,
        -3.7047833250824134,
        -1.465177525632144,
        -1.345705140264982
      ],
      [
        0.8668945419199916,
        -2.4895998552342773,
        -2.511658288561576,
        -0.46989663706185314,
        -2.99292578943117
      ]
    ]
  },
  "weights_ho": {
    "rows": 2,
    "cols": 8,
    "data": [
      [
        -0.7025869792839488,
        -1.5713112905716113,
        5.531131377624911,
        3.6043637126447177,
        -2.8565417492084624,
        -2.90474641347473,
        0.9433548945656679,
        0.4187431074536831
      ],
      [
        -0.04305398997057697,
        -0.4641154852241374,
        1.0176145162291732,
        0.9394430578712397,
        1.0569579190432483,
        1.9108134691864103,
        -2.667156986297793,
        -1.197792297829043
      ]
    ]
  },
  "bias_h": {
    "rows": 8,
    "cols": 1,
    "data": [
      [
        -2.155880055285381
      ],
      [
        -2.006556447232383
      ],
      [
        0.5959572949869862
      ],
      [
        5.049180161738277
      ],
      [
        -2.034562690118085
      ],
      [
        -1.54304208857468
      ],
      [
        0.48913482346081927
      ],
      [
        5.932809413711356
      ]
    ]
  },
  "bias_o": {
    "rows": 2,
    "cols": 1,
    "data": [
      [
        -0.6778902712585627
      ],
      [
        0.6630257811766953
      ]
    ]
  },
  "learning_rate": 0.1,
  "activation_function": {}
}
